digraph Tree {
node [shape=box] ;
0 [label="change <= 0.5\ngini = 0.444\nsamples = 48087\nvalue = [16017, 32070]\nclass = yes"] ;
1 [label="gini = 0.0\nsamples = 18103\nvalue = [0, 18103]\nclass = yes"] ;
0 -> 1 [labeldistance=2.5, labelangle=45, headlabel="True"] ;
2 [label="number_diagnoses <= 5.5\ngini = 0.498\nsamples = 29984\nvalue = [16017, 13967]\nclass = no"] ;
0 -> 2 [labeldistance=2.5, labelangle=-45, headlabel="False"] ;
3 [label="num_medications <= 4.5\ngini = 0.495\nsamples = 7306\nvalue = [3296, 4010]\nclass = yes"] ;
2 -> 3 ;
4 [label="age <= 2.5\ngini = 0.48\nsamples = 799\nvalue = [479, 320]\nclass = no"] ;
3 -> 4 ;
5 [label="gini = 0.471\nsamples = 161\nvalue = [61, 100]\nclass = yes"] ;
4 -> 5 ;
6 [label="race <= 1.5\ngini = 0.452\nsamples = 638\nvalue = [418, 220]\nclass = no"] ;
4 -> 6 ;
7 [label="gini = 0.497\nsamples = 167\nvalue = [90, 77]\nclass = no"] ;
6 -> 7 ;
8 [label="num_lab_procedures <= 24.0\ngini = 0.423\nsamples = 471\nvalue = [328, 143]\nclass = no"] ;
6 -> 8 ;
9 [label="gini = 0.299\nsamples = 104\nvalue = [85, 19]\nclass = no"] ;
8 -> 9 ;
10 [label="gini = 0.447\nsamples = 367\nvalue = [243, 124]\nclass = no"] ;
8 -> 10 ;
11 [label="age <= 1.5\ngini = 0.491\nsamples = 6507\nvalue = [2817, 3690]\nclass = yes"] ;
3 -> 11 ;
12 [label="gini = 0.207\nsamples = 179\nvalue = [21, 158]\nclass = yes"] ;
11 -> 12 ;
13 [label="admission_type_id <= 2.5\ngini = 0.493\nsamples = 6328\nvalue = [2796, 3532]\nclass = yes"] ;
11 -> 13 ;
14 [label="admission_source_id <= 6.5\ngini = 0.482\nsamples = 4100\nvalue = [1661, 2439]\nclass = yes"] ;
13 -> 14 ;
15 [label="num_medications <= 10.5\ngini = 0.43\nsamples = 1933\nvalue = [606, 1327]\nclass = yes"] ;
14 -> 15 ;
16 [label="discharge_disposition_id <= 5.5\ngini = 0.484\nsamples = 872\nvalue = [359, 513]\nclass = yes"] ;
15 -> 16 ;
17 [label="number_inpatient <= 0.5\ngini = 0.477\nsamples = 809\nvalue = [318, 491]\nclass = yes"] ;
16 -> 17 ;
18 [label="race <= 0.5\ngini = 0.489\nsamples = 658\nvalue = [281, 377]\nclass = yes"] ;
17 -> 18 ;
19 [label="gini = 0.448\nsamples = 180\nvalue = [61, 119]\nclass = yes"] ;
18 -> 19 ;
20 [label="gini = 0.497\nsamples = 478\nvalue = [220, 258]\nclass = yes"] ;
18 -> 20 ;
21 [label="gini = 0.37\nsamples = 151\nvalue = [37, 114]\nclass = yes"] ;
17 -> 21 ;
22 [label="gini = 0.455\nsamples = 63\nvalue = [41, 22]\nclass = no"] ;
16 -> 22 ;
23 [label="discharge_disposition_id <= 5.5\ngini = 0.357\nsamples = 1061\nvalue = [247, 814]\nclass = yes"] ;
15 -> 23 ;
24 [label="number_diagnoses <= 4.5\ngini = 0.33\nsamples = 945\nvalue = [197, 748]\nclass = yes"] ;
23 -> 24 ;
25 [label="gini = 0.459\nsamples = 151\nvalue = [54, 97]\nclass = yes"] ;
24 -> 25 ;
26 [label="num_medications <= 12.5\ngini = 0.295\nsamples = 794\nvalue = [143, 651]\nclass = yes"] ;
24 -> 26 ;
27 [label="gini = 0.397\nsamples = 198\nvalue = [54, 144]\nclass = yes"] ;
26 -> 27 ;
28 [label="gini = 0.254\nsamples = 596\nvalue = [89, 507]\nclass = yes"] ;
26 -> 28 ;
29 [label="gini = 0.49\nsamples = 116\nvalue = [50, 66]\nclass = yes"] ;
23 -> 29 ;
30 [label="num_procedures <= 0.5\ngini = 0.5\nsamples = 2167\nvalue = [1055, 1112]\nclass = yes"] ;
14 -> 30 ;
31 [label="age <= 3.5\ngini = 0.496\nsamples = 1310\nvalue = [597, 713]\nclass = yes"] ;
30 -> 31 ;
32 [label="gini = 0.444\nsamples = 174\nvalue = [58, 116]\nclass = yes"] ;
31 -> 32 ;
33 [label="num_medications <= 8.5\ngini = 0.499\nsamples = 1136\nvalue = [539, 597]\nclass = yes"] ;
31 -> 33 ;
34 [label="discharge_disposition_id <= 2.5\ngini = 0.499\nsamples = 505\nvalue = [264, 241]\nclass = no"] ;
33 -> 34 ;
35 [label="gini = 0.5\nsamples = 385\nvalue = [191, 194]\nclass = yes"] ;
34 -> 35 ;
36 [label="gini = 0.477\nsamples = 120\nvalue = [73, 47]\nclass = no"] ;
34 -> 36 ;
37 [label="num_lab_procedures <= 37.5\ngini = 0.492\nsamples = 631\nvalue = [275, 356]\nclass = yes"] ;
33 -> 37 ;
38 [label="gini = 0.459\nsamples = 168\nvalue = [60, 108]\nclass = yes"] ;
37 -> 38 ;
39 [label="gini = 0.497\nsamples = 463\nvalue = [215, 248]\nclass = yes"] ;
37 -> 39 ;
40 [label="num_medications <= 22.5\ngini = 0.498\nsamples = 857\nvalue = [458, 399]\nclass = no"] ;
30 -> 40 ;
41 [label="number_outpatient <= 0.5\ngini = 0.495\nsamples = 793\nvalue = [437, 356]\nclass = no"] ;
40 -> 41 ;
42 [label="time_in_hospital <= 2.5\ngini = 0.497\nsamples = 730\nvalue = [392, 338]\nclass = no"] ;
41 -> 42 ;
43 [label="gini = 0.482\nsamples = 291\nvalue = [173, 118]\nclass = no"] ;
42 -> 43 ;
44 [label="gini = 0.5\nsamples = 439\nvalue = [219, 220]\nclass = yes"] ;
42 -> 44 ;
45 [label="gini = 0.408\nsamples = 63\nvalue = [45, 18]\nclass = no"] ;
41 -> 45 ;
46 [label="gini = 0.441\nsamples = 64\nvalue = [21, 43]\nclass = yes"] ;
40 -> 46 ;
47 [label="num_procedures <= 0.5\ngini = 0.5\nsamples = 2228\nvalue = [1135, 1093]\nclass = no"] ;
13 -> 47 ;
48 [label="discharge_disposition_id <= 3.5\ngini = 0.49\nsamples = 522\nvalue = [224, 298]\nclass = yes"] ;
47 -> 48 ;
49 [label="gini = 0.498\nsamples = 410\nvalue = [192, 218]\nclass = yes"] ;
48 -> 49 ;
50 [label="gini = 0.408\nsamples = 112\nvalue = [32, 80]\nclass = yes"] ;
48 -> 50 ;
51 [label="num_medications <= 15.5\ngini = 0.498\nsamples = 1706\nvalue = [911, 795]\nclass = no"] ;
47 -> 51 ;
52 [label="age <= 3.5\ngini = 0.483\nsamples = 914\nvalue = [541, 373]\nclass = no"] ;
51 -> 52 ;
53 [label="gini = 0.372\nsamples = 93\nvalue = [70, 23]\nclass = no"] ;
52 -> 53 ;
54 [label="num_lab_procedures <= 17.5\ngini = 0.489\nsamples = 821\nvalue = [471, 350]\nclass = no"] ;
52 -> 54 ;
55 [label="gini = 0.5\nsamples = 216\nvalue = [109, 107]\nclass = no"] ;
54 -> 55 ;
56 [label="discharge_disposition_id <= 6.5\ngini = 0.481\nsamples = 605\nvalue = [362, 243]\nclass = no"] ;
54 -> 56 ;
57 [label="gini = 0.471\nsamples = 522\nvalue = [324, 198]\nclass = no"] ;
56 -> 57 ;
58 [label="gini = 0.496\nsamples = 83\nvalue = [38, 45]\nclass = yes"] ;
56 -> 58 ;
59 [label="num_lab_procedures <= 17.5\ngini = 0.498\nsamples = 792\nvalue = [370, 422]\nclass = yes"] ;
51 -> 59 ;
60 [label="gini = 0.453\nsamples = 118\nvalue = [41, 77]\nclass = yes"] ;
59 -> 60 ;
61 [label="num_medications <= 20.5\ngini = 0.5\nsamples = 674\nvalue = [329, 345]\nclass = yes"] ;
59 -> 61 ;
62 [label="gini = 0.495\nsamples = 312\nvalue = [171, 141]\nclass = no"] ;
61 -> 62 ;
63 [label="gini = 0.492\nsamples = 362\nvalue = [158, 204]\nclass = yes"] ;
61 -> 63 ;
64 [label="num_medications <= 9.5\ngini = 0.493\nsamples = 22678\nvalue = [12721, 9957]\nclass = no"] ;
2 -> 64 ;
65 [label="num_medications <= 6.5\ngini = 0.443\nsamples = 5403\nvalue = [3617, 1786]\nclass = no"] ;
64 -> 65 ;
66 [label="num_medications <= 3.5\ngini = 0.387\nsamples = 2032\nvalue = [1499, 533]\nclass = no"] ;
65 -> 66 ;
67 [label="gini = 0.267\nsamples = 435\nvalue = [366, 69]\nclass = no"] ;
66 -> 67 ;
68 [label="num_lab_procedures <= 58.5\ngini = 0.412\nsamples = 1597\nvalue = [1133, 464]\nclass = no"] ;
66 -> 68 ;
69 [label="num_procedures <= 0.5\ngini = 0.399\nsamples = 1444\nvalue = [1046, 398]\nclass = no"] ;
68 -> 69 ;
70 [label="number_diagnoses <= 7.5\ngini = 0.422\nsamples = 945\nvalue = [659, 286]\nclass = no"] ;
69 -> 70 ;
71 [label="gini = 0.461\nsamples = 421\nvalue = [269, 152]\nclass = no"] ;
70 -> 71 ;
72 [label="race <= 0.5\ngini = 0.381\nsamples = 524\nvalue = [390, 134]\nclass = no"] ;
70 -> 72 ;
73 [label="gini = 0.455\nsamples = 97\nvalue = [63, 34]\nclass = no"] ;
72 -> 73 ;
74 [label="gini = 0.359\nsamples = 427\nvalue = [327, 100]\nclass = no"] ;
72 -> 74 ;
75 [label="admission_source_id <= 2.5\ngini = 0.348\nsamples = 499\nvalue = [387, 112]\nclass = no"] ;
69 -> 75 ;
76 [label="gini = 0.263\nsamples = 180\nvalue = [152, 28]\nclass = no"] ;
75 -> 76 ;
77 [label="gini = 0.388\nsamples = 319\nvalue = [235, 84]\nclass = no"] ;
75 -> 77 ;
78 [label="gini = 0.491\nsamples = 153\nvalue = [87, 66]\nclass = no"] ;
68 -> 78 ;
79 [label="number_diagnoses <= 7.5\ngini = 0.467\nsamples = 3371\nvalue = [2118, 1253]\nclass = no"] ;
65 -> 79 ;
80 [label="num_procedures <= 0.5\ngini = 0.487\nsamples = 1283\nvalue = [745, 538]\nclass = no"] ;
79 -> 80 ;
81 [label="time_in_hospital <= 1.5\ngini = 0.497\nsamples = 788\nvalue = [425, 363]\nclass = no"] ;
80 -> 81 ;
82 [label="gini = 0.498\nsamples = 215\nvalue = [100, 115]\nclass = yes"] ;
81 -> 82 ;
83 [label="num_lab_procedures <= 35.5\ngini = 0.491\nsamples = 573\nvalue = [325, 248]\nclass = no"] ;
81 -> 83 ;
84 [label="gini = 0.5\nsamples = 188\nvalue = [93, 95]\nclass = yes"] ;
83 -> 84 ;
85 [label="gini = 0.479\nsamples = 385\nvalue = [232, 153]\nclass = no"] ;
83 -> 85 ;
86 [label="age <= 4.5\ngini = 0.457\nsamples = 495\nvalue = [320, 175]\nclass = no"] ;
80 -> 86 ;
87 [label="gini = 0.38\nsamples = 94\nvalue = [70, 24]\nclass = no"] ;
86 -> 87 ;
88 [label="gini = 0.47\nsamples = 401\nvalue = [250, 151]\nclass = no"] ;
86 -> 88 ;
89 [label="num_lab_procedures <= 28.5\ngini = 0.45\nsamples = 2088\nvalue = [1373, 715]\nclass = no"] ;
79 -> 89 ;
90 [label="num_lab_procedures <= 25.5\ngini = 0.482\nsamples = 576\nvalue = [343, 233]\nclass = no"] ;
89 -> 90 ;
91 [label="admission_source_id <= 12.0\ngini = 0.475\nsamples = 521\nvalue = [319, 202]\nclass = no"] ;
90 -> 91 ;
92 [label="gini = 0.46\nsamples = 415\nvalue = [266, 149]\nclass = no"] ;
91 -> 92 ;
93 [label="gini = 0.5\nsamples = 106\nvalue = [53, 53]\nclass = no"] ;
91 -> 93 ;
94 [label="gini = 0.492\nsamples = 55\nvalue = [24, 31]\nclass = yes"] ;
90 -> 94 ;
95 [label="race <= 0.5\ngini = 0.434\nsamples = 1512\nvalue = [1030, 482]\nclass = no"] ;
89 -> 95 ;
96 [label="gini = 0.475\nsamples = 315\nvalue = [193, 122]\nclass = no"] ;
95 -> 96 ;
97 [label="num_procedures <= 3.5\ngini = 0.421\nsamples = 1197\nvalue = [837, 360]\nclass = no"] ;
95 -> 97 ;
98 [label="admission_type_id <= 1.5\ngini = 0.427\nsamples = 1136\nvalue = [785, 351]\nclass = no"] ;
97 -> 98 ;
99 [label="number_outpatient <= 0.5\ngini = 0.405\nsamples = 752\nvalue = [540, 212]\nclass = no"] ;
98 -> 99 ;
100 [label="gini = 0.419\nsamples = 647\nvalue = [454, 193]\nclass = no"] ;
99 -> 100 ;
101 [label="gini = 0.296\nsamples = 105\nvalue = [86, 19]\nclass = no"] ;
99 -> 101 ;
102 [label="gini = 0.462\nsamples = 384\nvalue = [245, 139]\nclass = no"] ;
98 -> 102 ;
103 [label="gini = 0.252\nsamples = 61\nvalue = [52, 9]\nclass = no"] ;
97 -> 103 ;
104 [label="number_diagnoses <= 8.5\ngini = 0.499\nsamples = 17275\nvalue = [9104, 8171]\nclass = no"] ;
64 -> 104 ;
105 [label="admission_source_id <= 7.5\ngini = 0.5\nsamples = 6810\nvalue = [3298, 3512]\nclass = yes"] ;
104 -> 105 ;
106 [label="number_outpatient <= 0.5\ngini = 0.5\nsamples = 5982\nvalue = [2977, 3005]\nclass = yes"] ;
105 -> 106 ;
107 [label="num_procedures <= 0.5\ngini = 0.5\nsamples = 5305\nvalue = [2588, 2717]\nclass = yes"] ;
106 -> 107 ;
108 [label="num_lab_procedures <= 50.5\ngini = 0.495\nsamples = 1952\nvalue = [875, 1077]\nclass = yes"] ;
107 -> 108 ;
109 [label="discharge_disposition_id <= 1.5\ngini = 0.486\nsamples = 1189\nvalue = [495, 694]\nclass = yes"] ;
108 -> 109 ;
110 [label="num_lab_procedures <= 38.5\ngini = 0.474\nsamples = 678\nvalue = [262, 416]\nclass = yes"] ;
109 -> 110 ;
111 [label="gini = 0.492\nsamples = 346\nvalue = [151, 195]\nclass = yes"] ;
110 -> 111 ;
112 [label="gini = 0.445\nsamples = 332\nvalue = [111, 221]\nclass = yes"] ;
110 -> 112 ;
113 [label="num_medications <= 17.5\ngini = 0.496\nsamples = 511\nvalue = [233, 278]\nclass = yes"] ;
109 -> 113 ;
114 [label="gini = 0.499\nsamples = 436\nvalue = [208, 228]\nclass = yes"] ;
113 -> 114 ;
115 [label="gini = 0.444\nsamples = 75\nvalue = [25, 50]\nclass = yes"] ;
113 -> 115 ;
116 [label="num_lab_procedures <= 58.5\ngini = 0.5\nsamples = 763\nvalue = [380, 383]\nclass = yes"] ;
108 -> 116 ;
117 [label="gini = 0.496\nsamples = 344\nvalue = [188, 156]\nclass = no"] ;
116 -> 117 ;
118 [label="gini = 0.497\nsamples = 419\nvalue = [192, 227]\nclass = yes"] ;
116 -> 118 ;
119 [label="num_medications <= 34.5\ngini = 0.5\nsamples = 3353\nvalue = [1713, 1640]\nclass = no"] ;
107 -> 119 ;
120 [label="number_inpatient <= 0.5\ngini = 0.499\nsamples = 3237\nvalue = [1677, 1560]\nclass = no"] ;
119 -> 120 ;
121 [label="num_procedures <= 5.5\ngini = 0.497\nsamples = 2336\nvalue = [1264, 1072]\nclass = no"] ;
120 -> 121 ;
122 [label="gini = 0.498\nsamples = 2116\nvalue = [1118, 998]\nclass = no"] ;
121 -> 122 ;
123 [label="gini = 0.446\nsamples = 220\nvalue = [146, 74]\nclass = no"] ;
121 -> 123 ;
124 [label="num_lab_procedures <= 38.5\ngini = 0.497\nsamples = 901\nvalue = [413, 488]\nclass = yes"] ;
120 -> 124 ;
125 [label="gini = 0.478\nsamples = 309\nvalue = [122, 187]\nclass = yes"] ;
124 -> 125 ;
126 [label="gini = 0.5\nsamples = 592\nvalue = [291, 301]\nclass = yes"] ;
124 -> 126 ;
127 [label="gini = 0.428\nsamples = 116\nvalue = [36, 80]\nclass = yes"] ;
119 -> 127 ;
128 [label="time_in_hospital <= 2.5\ngini = 0.489\nsamples = 677\nvalue = [389, 288]\nclass = no"] ;
106 -> 128 ;
129 [label="gini = 0.451\nsamples = 227\nvalue = [149, 78]\nclass = no"] ;
128 -> 129 ;
130 [label="gender <= 0.5\ngini = 0.498\nsamples = 450\nvalue = [240, 210]\nclass = no"] ;
128 -> 130 ;
131 [label="gini = 0.483\nsamples = 267\nvalue = [158, 109]\nclass = no"] ;
130 -> 131 ;
132 [label="gini = 0.495\nsamples = 183\nvalue = [82, 101]\nclass = yes"] ;
130 -> 132 ;
133 [label="num_medications <= 20.5\ngini = 0.475\nsamples = 828\nvalue = [321, 507]\nclass = yes"] ;
105 -> 133 ;
134 [label="discharge_disposition_id <= 5.5\ngini = 0.487\nsamples = 659\nvalue = [276, 383]\nclass = yes"] ;
133 -> 134 ;
135 [label="num_procedures <= 0.5\ngini = 0.494\nsamples = 490\nvalue = [218, 272]\nclass = yes"] ;
134 -> 135 ;
136 [label="gini = 0.476\nsamples = 223\nvalue = [87, 136]\nclass = yes"] ;
135 -> 136 ;
137 [label="gini = 0.5\nsamples = 267\nvalue = [131, 136]\nclass = yes"] ;
135 -> 137 ;
138 [label="gini = 0.451\nsamples = 169\nvalue = [58, 111]\nclass = yes"] ;
134 -> 138 ;
139 [label="gini = 0.391\nsamples = 169\nvalue = [45, 124]\nclass = yes"] ;
133 -> 139 ;
140 [label="admission_type_id <= 1.5\ngini = 0.494\nsamples = 10465\nvalue = [5806, 4659]\nclass = no"] ;
104 -> 140 ;
141 [label="number_outpatient <= 1.5\ngini = 0.487\nsamples = 6206\nvalue = [3598, 2608]\nclass = no"] ;
140 -> 141 ;
142 [label="race <= 0.5\ngini = 0.492\nsamples = 5630\nvalue = [3175, 2455]\nclass = no"] ;
141 -> 142 ;
143 [label="gender <= 0.5\ngini = 0.5\nsamples = 1309\nvalue = [653, 656]\nclass = yes"] ;
142 -> 143 ;
144 [label="time_in_hospital <= 2.5\ngini = 0.498\nsamples = 806\nvalue = [377, 429]\nclass = yes"] ;
143 -> 144 ;
145 [label="gini = 0.459\nsamples = 132\nvalue = [47, 85]\nclass = yes"] ;
144 -> 145 ;
146 [label="number_outpatient <= 0.5\ngini = 0.5\nsamples = 674\nvalue = [330, 344]\nclass = yes"] ;
144 -> 146 ;
147 [label="gini = 0.499\nsamples = 614\nvalue = [293, 321]\nclass = yes"] ;
146 -> 147 ;
148 [label="gini = 0.473\nsamples = 60\nvalue = [37, 23]\nclass = no"] ;
146 -> 148 ;
149 [label="num_medications <= 13.5\ngini = 0.495\nsamples = 503\nvalue = [276, 227]\nclass = no"] ;
143 -> 149 ;
150 [label="gini = 0.468\nsamples = 158\nvalue = [99, 59]\nclass = no"] ;
149 -> 150 ;
151 [label="gini = 0.5\nsamples = 345\nvalue = [177, 168]\nclass = no"] ;
149 -> 151 ;
152 [label="age <= 7.5\ngini = 0.486\nsamples = 4321\nvalue = [2522, 1799]\nclass = no"] ;
142 -> 152 ;
153 [label="number_emergency <= 0.5\ngini = 0.492\nsamples = 3081\nvalue = [1736, 1345]\nclass = no"] ;
152 -> 153 ;
154 [label="number_inpatient <= 2.5\ngini = 0.495\nsamples = 2771\nvalue = [1526, 1245]\nclass = no"] ;
153 -> 154 ;
155 [label="gini = 0.493\nsamples = 2557\nvalue = [1430, 1127]\nclass = no"] ;
154 -> 155 ;
156 [label="gini = 0.495\nsamples = 214\nvalue = [96, 118]\nclass = yes"] ;
154 -> 156 ;
157 [label="gini = 0.437\nsamples = 310\nvalue = [210, 100]\nclass = no"] ;
153 -> 157 ;
158 [label="time_in_hospital <= 7.5\ngini = 0.464\nsamples = 1240\nvalue = [786, 454]\nclass = no"] ;
152 -> 158 ;
159 [label="age <= 8.5\ngini = 0.454\nsamples = 963\nvalue = [628, 335]\nclass = no"] ;
158 -> 159 ;
160 [label="gini = 0.462\nsamples = 827\nvalue = [528, 299]\nclass = no"] ;
159 -> 160 ;
161 [label="gini = 0.389\nsamples = 136\nvalue = [100, 36]\nclass = no"] ;
159 -> 161 ;
162 [label="gini = 0.49\nsamples = 277\nvalue = [158, 119]\nclass = no"] ;
158 -> 162 ;
163 [label="number_emergency <= 1.5\ngini = 0.39\nsamples = 576\nvalue = [423, 153]\nclass = no"] ;
141 -> 163 ;
164 [label="time_in_hospital <= 6.5\ngini = 0.412\nsamples = 509\nvalue = [361, 148]\nclass = no"] ;
163 -> 164 ;
165 [label="gini = 0.387\nsamples = 374\nvalue = [276, 98]\nclass = no"] ;
164 -> 165 ;
166 [label="gini = 0.466\nsamples = 135\nvalue = [85, 50]\nclass = no"] ;
164 -> 166 ;
167 [label="gini = 0.138\nsamples = 67\nvalue = [62, 5]\nclass = no"] ;
163 -> 167 ;
168 [label="admission_source_id <= 1.5\ngini = 0.499\nsamples = 4259\nvalue = [2208, 2051]\nclass = no"] ;
140 -> 168 ;
169 [label="num_medications <= 21.5\ngini = 0.495\nsamples = 2426\nvalue = [1332, 1094]\nclass = no"] ;
168 -> 169 ;
170 [label="admission_type_id <= 4.0\ngini = 0.49\nsamples = 1801\nvalue = [1029, 772]\nclass = no"] ;
169 -> 170 ;
171 [label="num_procedures <= 5.5\ngini = 0.486\nsamples = 1654\nvalue = [963, 691]\nclass = no"] ;
170 -> 171 ;
172 [label="age <= 4.5\ngini = 0.489\nsamples = 1580\nvalue = [908, 672]\nclass = no"] ;
171 -> 172 ;
173 [label="gini = 0.456\nsamples = 176\nvalue = [114, 62]\nclass = no"] ;
172 -> 173 ;
174 [label="gini = 0.491\nsamples = 1404\nvalue = [794, 610]\nclass = no"] ;
172 -> 174 ;
175 [label="gini = 0.382\nsamples = 74\nvalue = [55, 19]\nclass = no"] ;
171 -> 175 ;
176 [label="gini = 0.495\nsamples = 147\nvalue = [66, 81]\nclass = yes"] ;
170 -> 176 ;
177 [label="num_lab_procedures <= 42.5\ngini = 0.5\nsamples = 625\nvalue = [303, 322]\nclass = yes"] ;
169 -> 177 ;
178 [label="gini = 0.492\nsamples = 255\nvalue = [144, 111]\nclass = no"] ;
177 -> 178 ;
179 [label="gini = 0.49\nsamples = 370\nvalue = [159, 211]\nclass = yes"] ;
177 -> 179 ;
180 [label="num_lab_procedures <= 31.5\ngini = 0.499\nsamples = 1833\nvalue = [876, 957]\nclass = yes"] ;
168 -> 180 ;
181 [label="number_emergency <= 0.5\ngini = 0.485\nsamples = 596\nvalue = [247, 349]\nclass = yes"] ;
180 -> 181 ;
182 [label="age <= 6.5\ngini = 0.493\nsamples = 502\nvalue = [221, 281]\nclass = yes"] ;
181 -> 182 ;
183 [label="gini = 0.5\nsamples = 211\nvalue = [105, 106]\nclass = yes"] ;
182 -> 183 ;
184 [label="gini = 0.479\nsamples = 291\nvalue = [116, 175]\nclass = yes"] ;
182 -> 184 ;
185 [label="gini = 0.4\nsamples = 94\nvalue = [26, 68]\nclass = yes"] ;
181 -> 185 ;
186 [label="admission_source_id <= 3.5\ngini = 0.5\nsamples = 1237\nvalue = [629, 608]\nclass = no"] ;
180 -> 186 ;
187 [label="gini = 0.447\nsamples = 92\nvalue = [31, 61]\nclass = yes"] ;
186 -> 187 ;
188 [label="num_procedures <= 3.5\ngini = 0.499\nsamples = 1145\nvalue = [598, 547]\nclass = no"] ;
186 -> 188 ;
189 [label="discharge_disposition_id <= 7.5\ngini = 0.495\nsamples = 870\nvalue = [479, 391]\nclass = no"] ;
188 -> 189 ;
190 [label="gini = 0.49\nsamples = 757\nvalue = [432, 325]\nclass = no"] ;
189 -> 190 ;
191 [label="gini = 0.486\nsamples = 113\nvalue = [47, 66]\nclass = yes"] ;
189 -> 191 ;
192 [label="gini = 0.491\nsamples = 275\nvalue = [119, 156]\nclass = yes"] ;
188 -> 192 ;
}